digraph Tree {
node [shape=box] ;
0 [label="X[0] <= 0.752\nmae = 0.394\nsamples = 100\nvalue = 0.025"] ;
1 [label="X[0] <= 0.253\nmae = 0.306\nsamples = 78\nvalue = -0.185"] ;
0 -> 1 [labeldistance=2.5, labelangle=45, headlabel="True"] ;
2 [label="X[0] <= 0.15\nmae = 0.133\nsamples = 30\nvalue = 0.226"] ;
1 -> 2 ;
3 [label="X[0] <= 0.12\nmae = 0.067\nsamples = 12\nvalue = 0.085"] ;
2 -> 3 ;
4 [label="X[0] <= 0.065\nmae = 0.066\nsamples = 10\nvalue = 0.076"] ;
3 -> 4 ;
5 [label="mae = 0.09\nsamples = 5\nvalue = 0.167"] ;
4 -> 5 ;
6 [label="mae = 0.023\nsamples = 5\nvalue = 0.07"] ;
4 -> 6 ;
7 [label="mae = 0.008\nsamples = 2\nvalue = 0.155"] ;
3 -> 7 ;
8 [label="X[0] <= 0.237\nmae = 0.13\nsamples = 18\nvalue = 0.264"] ;
2 -> 8 ;
9 [label="X[0] <= 0.227\nmae = 0.108\nsamples = 14\nvalue = 0.338"] ;
8 -> 9 ;
10 [label="mae = 0.107\nsamples = 12\nvalue = 0.394"] ;
9 -> 10 ;
11 [label="mae = 0.009\nsamples = 2\nvalue = 0.264"] ;
9 -> 11 ;
12 [label="X[0] <= 0.25\nmae = 0.077\nsamples = 4\nvalue = 0.09"] ;
8 -> 12 ;
13 [label="mae = 0.043\nsamples = 3\nvalue = 0.099"] ;
12 -> 13 ;
14 [label="mae = 0.0\nsamples = 1\nvalue = -0.077"] ;
12 -> 14 ;
15 [label="X[0] <= 0.617\nmae = 0.172\nsamples = 48\nvalue = -0.432"] ;
1 -> 15 ;
16 [label="X[0] <= 0.374\nmae = 0.137\nsamples = 36\nvalue = -0.48"] ;
15 -> 16 ;
17 [label="X[0] <= 0.32\nmae = 0.109\nsamples = 11\nvalue = -0.266"] ;
16 -> 17 ;
18 [label="mae = 0.056\nsamples = 4\nvalue = -0.355"] ;
17 -> 18 ;
19 [label="mae = 0.093\nsamples = 7\nvalue = -0.201"] ;
17 -> 19 ;
20 [label="X[0] <= 0.404\nmae = 0.094\nsamples = 25\nvalue = -0.545"] ;
16 -> 20 ;
21 [label="mae = 0.027\nsamples = 4\nvalue = -0.457"] ;
20 -> 21 ;
22 [label="mae = 0.092\nsamples = 21\nvalue = -0.573"] ;
20 -> 22 ;
23 [label="X[0] <= 0.707\nmae = 0.089\nsamples = 12\nvalue = -0.185"] ;
15 -> 23 ;
24 [label="X[0] <= 0.662\nmae = 0.09\nsamples = 8\nvalue = -0.12"] ;
23 -> 24 ;
25 [label="mae = 0.014\nsamples = 2\nvalue = -0.194"] ;
24 -> 25 ;
26 [label="mae = 0.095\nsamples = 6\nvalue = -0.118"] ;
24 -> 26 ;
27 [label="X[0] <= 0.735\nmae = 0.041\nsamples = 4\nvalue = -0.215"] ;
23 -> 27 ;
28 [label="mae = 0.014\nsamples = 3\nvalue = -0.198"] ;
27 -> 28 ;
29 [label="mae = 0.0\nsamples = 1\nvalue = -0.32"] ;
27 -> 29 ;
30 [label="X[0] <= 0.884\nmae = 0.167\nsamples = 22\nvalue = 0.634"] ;
0 -> 30 [labeldistance=2.5, labelangle=-45, headlabel="False"] ;
31 [label="X[0] <= 0.857\nmae = 0.091\nsamples = 12\nvalue = 0.768"] ;
30 -> 31 ;
32 [label="X[0] <= 0.847\nmae = 0.081\nsamples = 9\nvalue = 0.793"] ;
31 -> 32 ;
33 [label="X[0] <= 0.767\nmae = 0.069\nsamples = 8\nvalue = 0.79"] ;
32 -> 33 ;
34 [label="mae = 0.0\nsamples = 1\nvalue = 0.632"] ;
33 -> 34 ;
35 [label="mae = 0.056\nsamples = 7\nvalue = 0.793"] ;
33 -> 35 ;
36 [label="mae = 0.0\nsamples = 1\nvalue = 0.972"] ;
32 -> 36 ;
37 [label="X[0] <= 0.872\nmae = 0.023\nsamples = 3\nvalue = 0.664"] ;
31 -> 37 ;
38 [label="mae = 0.014\nsamples = 2\nvalue = 0.65"] ;
37 -> 38 ;
39 [label="mae = 0.0\nsamples = 1\nvalue = 0.704"] ;
37 -> 39 ;
40 [label="X[0] <= 0.932\nmae = 0.088\nsamples = 10\nvalue = 0.473"] ;
30 -> 40 ;
41 [label="X[0] <= 0.911\nmae = 0.097\nsamples = 7\nvalue = 0.425"] ;
40 -> 41 ;
42 [label="X[0] <= 0.902\nmae = 0.019\nsamples = 3\nvalue = 0.463"] ;
41 -> 42 ;
43 [label="mae = 0.01\nsamples = 2\nvalue = 0.473"] ;
42 -> 43 ;
44 [label="mae = 0.0\nsamples = 1\nvalue = 0.425"] ;
42 -> 44 ;
45 [label="X[0] <= 0.914\nmae = 0.118\nsamples = 4\nvalue = 0.331"] ;
41 -> 45 ;
46 [label="mae = 0.0\nsamples = 1\nvalue = 0.162"] ;
45 -> 46 ;
47 [label="mae = 0.088\nsamples = 3\nvalue = 0.368"] ;
45 -> 47 ;
48 [label="X[0] <= 0.952\nmae = 0.007\nsamples = 3\nvalue = 0.517"] ;
40 -> 48 ;
49 [label="mae = 0.0\nsamples = 1\nvalue = 0.507"] ;
48 -> 49 ;
50 [label="mae = 0.005\nsamples = 2\nvalue = 0.522"] ;
48 -> 50 ;
}